SVM-light Version V6.02
2 # kernel type
3 # kernel parameter -d 
2.99 # kernel parameter -g 
1 # kernel parameter -s 
1 # kernel parameter -r 
empty# kernel parameter -u 
4 # highest feature index 
1881 # number of training documents 
165 # number of support vectors plus 1 
0.86744391 # threshold b, each following line is a SV (starting with alpha*y)
-0.01152216819191078 1:1.5845441 2:-0.18404919 3:1.0322001 4:4 #
0.72213990812708051 1:0.012019857 2:-0.21903245 3:0.024382493 4:0.125 #
-0.72213990812708051 1:0.022562195 2:0.76968193 3:0.019550271 4:0.08203125 #
0.064453174033145488 1:0.0089770639 2:0.2632772 3:0.020376287 4:0.06640625 #
-0.72213990812708051 1:0.0035383657 2:-0.59068036 3:0.0031582362 4:0.01171875 #
0.72213990812708051 1:0.0032786233 2:0.41106105 3:0.036917485 4:0.23242188 #
-0.72213990812708051 1:0.040927261 2:-0.79200828 3:0.1198609 4:0.3828125 #
0.72213990812708051 1:0.024054732 2:-0.5531913 3:0.031328112 4:0.140625 #
-0.72213990812708051 1:0.014192217 2:0.47446144 3:0.012063307 4:0.060546875 #
0.72213990812708051 1:0.077472128 2:-0.35445669 3:0.1022889 4:0.609375 #
-0.021379150573992534 1:0.44797719 2:0.76985967 3:0.32209423 4:1.5957031 #
0.72213990812708051 1:0.010054015 2:0.87800992 3:0.0074740122 4:0.029296875 #
-0.72213990812708051 1:0.0025594817 2:-0.34527722 3:0.004124274 4:0.015625 #
0.72213990812708051 1:0.0087701734 2:0.87433648 3:0.0080097057 4:0.046875 #
0.72213990812708051 1:0.0089667207 2:0.43910405 3:0.010206878 4:0.04296875 #
0.10672568729571104 1:0.0022329222 2:0.40169221 3:0.0038697715 4:0.015625 #
-0.72213990812708051 1:0.01766672 2:0.8402431 3:0.017021131 4:0.06640625 #
0.72213990812708051 1:0.024354188 2:-0.35047841 3:0.035460111 4:0.15625 #
-0.72213990812708051 1:0.0050309971 2:-0.51949805 3:0.018229881 4:0.060546875 #
0.72213990812708051 1:0.0084601333 2:0.72752714 3:0.0448111 4:0.15234375 #
-0.72213990812708051 1:0.011218843 2:0.7166332 3:0.019121043 4:0.07421875 #
0.72213990812708051 1:0.007283173 2:-0.89017373 3:0.045297835 4:0.22460938 #
-0.72213990812708051 1:0.02509789 2:-0.82785469 3:0.049537022 4:0.1875 #
0.72213990812708051 1:0.0053470945 2:0.71630371 3:0.015424567 4:0.05859375 #
-0.72213990812708051 1:0.028365431 2:0.67412412 3:0.019725533 4:0.0859375 #
0.72213990812708051 1:0.060703188 2:-0.54291618 3:0.052172057 4:0.33789063 #
-0.72213990812708051 1:0.072977178 2:-0.4926213 3:0.071284503 4:0.30859375 #
0.72213990812708051 1:0.028644696 2:0.48163721 3:0.02534971 4:0.1484375 #
-0.72213990812708051 1:0.0061755115 2:0.2321385 3:0.01576142 4:0.056640625 #
-0.049964618348528445 1:0.067328967 2:0.163341 3:0.25000918 4:1.6601563 #
-0.72213990812708051 1:0.0080487356 2:-0.86240512 3:0.017455557 4:0.083984375 #
0.72213990812708051 1:0.04161939 2:-0.0038611854 3:0.052569944 4:0.23632813 #
-0.72213990812708051 1:0.0060474738 2:-0.25363263 3:0.0067106625 4:0.041015625 #
0.72213990812708051 1:0.012110489 2:-0.814915 3:0.026775837 4:0.15234375 #
-0.72213990812708051 1:0.091513537 2:-0.80296707 3:0.052955471 4:0.26953125 #
0.72213990812708051 1:0.0037736632 2:0.42033893 3:0.011818382 4:0.04296875 #
-0.72213990812708051 1:0.01243904 2:0.15132605 3:0.011456975 4:0.056640625 #
0.72213990812708051 1:0.019840077 2:-0.52210879 3:0.045803748 4:0.27539063 #
-0.72213990812708051 1:0.0035932274 2:-0.55733103 3:0.0067506265 4:0.033203125 #
0.72213990812708051 1:0.017191568 2:0.43016875 3:0.013633815 4:0.052734375 #
-0.72213990812708051 1:0.030179335 2:0.57478201 3:0.02118586 4:0.08984375 #
0.72213990812708051 1:0.016361875 2:-0.459658 3:0.0300657 4:0.15039063 #
-0.72213990812708051 1:0.012182963 2:-0.31565616 3:0.016724393 4:0.0703125 #
0.72213990812708051 1:0.007774204 2:0.60023874 3:0.025097895 4:0.08203125 #
-0.72213990812708051 1:0.020770639 2:0.68392354 3:0.021062752 4:0.095703125 #
0.72213990812708051 1:0.011482228 2:-0.11271857 3:0.019240562 4:0.11328125 #
-0.72213990812708051 1:0.0067010131 2:-0.29403979 3:0.0075188647 4:0.033203125 #
0.72213990812708051 1:0.0082448376 2:0.90020239 3:0.0079476433 4:0.02734375 #
0.60950327839467555 1:0.0061763236 2:-0.88339168 3:0.032278158 4:0.10742188 #
0.72213990812708051 1:0.0067494935 2:-0.18527426 3:0.027917935 4:0.10546875 #
-0.72213990812708051 1:0.036919415 2:-0.38096213 3:0.067419201 4:0.27539063 #
0.72213990812708051 1:0.0097276699 2:0.87893695 3:0.0059090359 4:0.03125 #
-0.72213990812708051 1:0.01994447 2:0.85816801 3:0.015580804 4:0.0625 #
0.72213990812708051 1:0.017730204 2:-0.29324946 3:0.037870433 4:0.16992188 #
-0.72213990812708051 1:0.10617062 2:-0.38284484 3:0.032404162 4:0.2421875 #
0.72213990812708051 1:0.0049440018 2:0.81120324 3:0.0072535151 4:0.02734375 #
-0.72213990812708051 1:0.015928 2:0.79179966 3:0.015296016 4:0.0703125 #
0.72213990812708051 1:0.03230739 2:-0.57636249 3:0.037447818 4:0.15039063 #
-0.72213990812708051 1:0.057158913 2:-0.69381207 3:0.10130556 4:0.296875 #
0.72213990812708051 1:0.0056844805 2:0.70337647 3:0.013619458 4:0.060546875 #
-0.72213990812708051 1:0.026871711 2:0.53667504 3:0.022830719 4:0.10742188 #
0.72213990812708051 1:0.032532584 2:-0.65902257 3:0.033087704 4:0.14257813 #
-0.72213990812708051 1:0.044183843 2:-0.88155484 3:0.071236372 4:0.3515625 #
0.72213990812708051 1:0.0044860169 2:0.46289593 3:0.017436776 4:0.05859375 #
-0.72213990812708051 1:0.019608529 2:0.32345173 3:0.018528707 4:0.087890625 #
0.72213990812708051 1:0.0079758009 2:-0.79108912 3:0.022206372 4:0.15234375 #
-0.63015133844200333 1:0.062781587 2:-0.10684497 3:0.095874369 4:0.375 #
0.72213990812708051 1:0.011546049 2:0.33344683 3:0.015915273 4:0.060546875 #
-0.72213990812708051 1:0.071226336 2:-0.1460555 3:0.069899358 4:0.26953125 #
0.72213990812708051 1:0.0024999967 2:0.71956795 3:0.0044571031 4:0.015625 #
-0.72213990812708051 1:0.017896062 2:0.58024633 3:0.02191033 4:0.11132813 #
0.72213990812708051 1:0.034303315 2:-0.1883945 3:0.025332727 4:0.1171875 #
-0.72213990812708051 1:0.14273055 2:-0.023080099 3:0.053464182 4:0.24023438 #
0.72213990812708051 1:0.003382541 2:0.69463748 3:0.0079514878 4:0.03125 #
-0.72213990812708051 1:0.021502404 2:0.62662733 3:0.025553776 4:0.10351563 #
0.72213990812708051 1:0.01968321 2:0.048485637 3:0.028125104 4:0.13476563 #
-0.72213990812708051 1:0.023398731 2:0.47964486 3:0.025323119 4:0.13671875 #
0.72213990812708051 1:0.0071448041 2:0.69937617 3:0.0047224262 4:0.017578125 #
-0.04185651636864704 1:0.18586464 2:-0.44464928 3:0.3823989 4:2.3515625 #
0.72213990812708051 1:0.021266077 2:0.15936518 3:0.029403144 4:0.125 #
-0.72213990812708051 1:0.044967551 2:0.077643774 3:0.05994435 4:0.27539063 #
0.72213990812708051 1:0.0062228465 2:0.66329455 3:0.0053798505 4:0.025390625 #
-0.72213990812708051 1:0.025944309 2:0.45768067 3:0.035475314 4:0.15039063 #
0.22080645487810374 1:0.020502904 2:0.043227587 3:0.021713972 4:0.099609375 #
-0.72213990812708051 1:0.16754478 2:-0.080131948 3:0.056526858 4:0.28125 #
0.72213990812708051 1:0.0077922489 2:0.60173237 3:0.0062893145 4:0.02734375 #
-0.72213990812708051 1:0.027989998 2:0.60251611 3:0.02627177 4:0.125 #
0.72213990812708051 1:0.020947266 2:-0.39910576 3:0.026642764 4:0.14453125 #
-0.72213990812708051 1:0.034448504 2:-0.60832953 3:0.08069247 4:0.37695313 #
-0.72213990812708051 1:0.031307492 2:0.67763835 3:0.02643434 4:0.109375 #
0.72213990812708051 1:0.044946797 2:-0.78793901 3:0.031972658 4:0.13085938 #
-0.72213990812708051 1:0.11251914 2:-0.72077453 3:0.076636441 4:0.36132813 #
0.72213990812708051 1:0.0056379638 2:0.53193015 3:0.0033024417 4:0.01171875 #
-0.72213990812708051 1:0.040185362 2:0.40382302 3:0.038931444 4:0.18945313 #
0.72213990812708051 1:0.028003974 2:-0.53232986 3:0.032936595 4:0.1484375 #
-0.72213990812708051 1:0.06186159 2:-0.50603634 3:0.08199279 4:0.36132813 #
0.72213990812708051 1:0.0018208793 2:0.53750873 3:0.0012470857 4:0.005859375 #
-0.72213990812708051 1:0.040928122 2:0.51476735 3:0.042131279 4:0.1640625 #
-0.72213990812708051 1:0.037753906 2:0.50804937 3:0.038110778 4:0.17382813 #
0.72213990812708051 1:0.015006667 2:-0.92307419 3:0.019306537 4:0.09765625 #
-0.72213990812708051 1:0.028501445 2:0.27685252 3:0.049447693 4:0.23828125 #
0.72213990812708051 1:0.003496296 2:0.46975803 3:0.0044658729 4:0.015625 #
-0.1103448681750234 1:0.42846173 2:-0.93394476 3:0.36527643 4:2.7753906 #
0.72213990812708051 1:0.011651355 2:0.2373367 3:0.015882974 4:0.087890625 #
-0.72213990812708051 1:0.030619074 2:0.60873067 3:0.027037079 4:0.14648438 #
0.72213990812708051 1:0.030793292 2:-0.35443407 3:0.025349179 4:0.12695313 #
-0.72213990812708051 1:0.078921549 2:-0.3123354 3:0.099569485 4:0.34960938 #
0.72213990812708051 1:0.0037133663 2:0.46426305 3:0.003803486 4:0.015625 #
-0.72213990812708051 1:0.031460207 2:0.71114951 3:0.021833466 4:0.10351563 #
-0.72213990812708051 1:0.17862119 2:-0.54674757 3:0.06848073 4:0.32421875 #
-0.72213990812708051 1:0.021052008 2:0.75175059 3:0.021518437 4:0.08984375 #
0.72213990812708051 1:0.028510684 2:-0.62151545 3:0.026596237 4:0.13085938 #
0.72213990812708051 1:0.0048248768 2:0.43993744 3:0.0052888561 4:0.0234375 #
-0.028577196940077793 1:0.16971292 2:0.20003635 3:0.3027828 4:2.2050781 #
0.72213990812708051 1:0.031706378 2:-0.62141699 3:0.025074696 4:0.125 #
-0.70326188612791296 1:0.055655271 2:0.36275518 3:0.065273449 4:0.25585938 #
0.67971387826149232 1:0.0094049359 2:-0.74060273 3:0.032848459 4:0.13085938 #
-0.72213990812708051 1:0.036615733 2:-0.72562742 3:0.10420828 4:0.38671875 #
0.72213990812708051 1:0.0095004523 2:0.30854571 3:0.015738521 4:0.0625 #
0.72213990812708051 1:0.026236443 2:-0.86211622 3:0.022462299 4:0.11132813 #
-0.074044430469073511 1:1.6994228 2:-0.22772071 3:0.56382269 4:2.3710938 #
-0.00024333309306322004 1:0.55221605 2:0.45851928 3:0.52206153 4:3.0625 #
0.72213990812708051 1:0.0026518835 2:0.43998334 3:0.0010419796 4:0.00390625 #
-0.10126943435521552 1:0.46295092 2:-0.3103494 3:0.52659637 4:4 #
-0.013035896297165072 1:0.017749149 2:0.80219775 3:0.018733457 4:0.08203125 #
-0.062989624947592554 1:0.22689183 2:-0.79186779 3:0.25766563 4:1.7109375 #
-0.062719367410252913 1:1.3792377 2:0.6677615 3:0.75427222 4:3.3222656 #
-0.094403933117840275 1:0.64480829 2:0.63965553 3:0.61339736 4:4 #
-0.083413076966653704 1:1.5057845 2:0.11812632 3:0.34734398 4:1.6660156 #
-0.34255236499567709 1:0.030992843 2:-0.87399364 3:0.11335652 4:0.40234375 #
-0.72213990812708051 1:0.013056227 2:0.77724808 3:0.015761808 4:0.083984375 #
-0.056786633513767844 1:0.73450506 2:0.79659563 3:0.39729339 4:2.0761719 #
-0.030088679393519471 1:1.7094822 2:0.014472674 3:0.56410438 4:3.21875 #
-0.01834569736132205 1:0.96143425 2:0.61721718 3:0.51454788 4:3.3398438 #
-0.060230068588861374 1:0.19896646 2:0.75734788 3:0.24470147 4:1.5527344 #
-0.72213990812708051 1:0.017937776 2:0.756033 3:0.017513948 4:0.09375 #
-0.044899278081665682 1:1.0781105 2:0.11336856 3:0.20370038 4:0.98242188 #
-0.031233875062339315 1:0.53692406 2:0.3492589 3:0.70799166 4:3.4472656 #
-0.062495815783440843 1:1.6302634 2:0.4486447 3:0.94528037 4:3.9121094 #
0.72213990812708051 1:0.0085301027 2:0.35021892 3:0.009068545 4:0.037109375 #
-0.06174118198045167 1:0.36663374 2:0.81208533 3:0.42128071 4:2.5761719 #
-0.041059307901260077 1:0.92711496 2:-0.0982785 3:0.49043 4:2.3125 #
-0.047129547338025837 1:1.2040305 2:-0.12844555 3:0.67456216 4:3.203125 #
-0.062042521998063295 1:0.63244355 2:-0.63458687 3:0.24612664 4:1.5859375 #
-0.014101181373149457 1:1.2004377 2:0.19353181 3:0.29896897 4:1.3613281 #
-0.070195684107320286 1:1.8978121 2:0.053264514 3:0.50017917 4:2.7871094 #
-0.049348763309044801 1:0.4851903 2:-0.13662417 3:0.51242733 4:3.0019531 #
-0.032864967027977282 1:1.0802159 2:0.24212155 3:0.60028714 4:2.2792969 #
-0.08695283142683867 1:1.2334732 2:-0.33569616 3:0.99606621 4:4 #
-0.0038751719100862687 1:0.84419996 2:0.51516312 3:0.77014124 4:4 #
-0.72213990812708051 1:0.029480908 2:0.68996716 3:0.028274253 4:0.11523438 #
-0.070743342446498464 1:1.8149719 2:0.040550221 3:0.70307404 4:4 #
-0.023173340044412748 1:0.10500949 2:-0.23353401 3:0.2950311 4:1.8222656 #
-0.033163252477609095 1:0.2674357 2:0.046877071 3:0.54850149 4:2.5976563 #
-0.0063249078523990093 1:1.0936235 2:0.14445363 3:0.28490043 4:1.3164063 #
-0.016687397174391574 1:0.44886416 2:0.099049658 3:0.4366805 4:1.4707031 #
0.35597167297374316 1:0.015841318 2:-0.30262145 3:0.022079319 4:0.1015625 #
-0.029135495594034434 1:0.83385664 2:0.60083956 3:0.63344383 4:2.9199219 #
-0.017819396793198466 1:1.261238 2:0.32658976 3:0.92810202 4:3.1445313 #
-0.01715047755084028 1:0.92033297 2:0.41766709 3:0.36901417 4:1.6914063 #
-0.016639857468540464 1:0.44911614 2:0.11994158 3:0.70127481 4:4 #
-0.0089500011789509296 1:0.56389976 2:0.091088116 3:0.5007745 4:3.3945313 #
-0.023274822816561895 1:0.47989804 2:0.77373087 3:0.38681334 4:2.71875 #
-0.013271259715830239 1:1.0889446 2:0.15688752 3:0.2408026 4:1.3378906 #
