SVM-light Version V6.02
2 # kernel type
3 # kernel parameter -d 
9.99 # kernel parameter -g 
1 # kernel parameter -s 
1 # kernel parameter -r 
empty# kernel parameter -u 
4 # highest feature index 
1254 # number of training documents 
233 # number of support vectors plus 1 
-0.82866286 # threshold b, each following line is a SV (starting with alpha*y)
0.02947003682877096 1:0.25238454 2:0.12648214 3:0.23152362 4:1.1992188 #
0.14103118137057641 1:0.044183843 2:-0.88155484 3:0.071236372 4:0.3515625 #
0.31206798466875296 1:0.49527347 2:0.63370889 3:0.32656744 4:2.0371094 #
0.50499050857447436 1:0.081373014 2:0.65304124 3:0.10691263 4:0.5078125 #
-0.50499050857447436 1:0.06186159 2:-0.50603634 3:0.08199279 4:0.36132813 #
0.50499050857447436 1:0.06205035 2:0.80131751 3:0.057597004 4:0.30664063 #
0.11642290596889558 1:0.4851903 2:-0.13662417 3:0.51242733 4:3.0019531 #
0.0051616233104058162 1:0.70346361 2:0.45964712 3:0.58879954 4:4 #
-0.50499050857447436 1:0.11321835 2:0.56515014 3:0.088718832 4:0.48632813 #
0.50499050857447436 1:0.072977178 2:-0.4926213 3:0.071284503 4:0.30859375 #
0.10547086321137836 1:0.63244355 2:-0.63458687 3:0.24612664 4:1.5859375 #
0.0051101626039075929 1:0.67958879 2:0.41926795 3:0.38744998 4:2.2460938 #
-0.50499050857447436 1:0.20381378 2:-0.16827524 3:0.15151581 4:0.671875 #
0.50499050857447436 1:0.11767869 2:0.74459785 3:0.045851771 4:0.234375 #
0.097072867116150291 1:0.067328967 2:0.163341 3:0.25000918 4:1.6601563 #
0.042989785775876192 1:0.34143218 2:-0.16176678 3:0.39517802 4:2.5253906 #
-0.50499050857447436 1:0.5027017 2:0.53868395 3:0.36228365 4:2.1386719 #
0.50499050857447436 1:0.066489927 2:0.82052779 3:0.096563384 4:0.37109375 #
-0.50499050857447436 1:0.063771613 2:0.70833826 3:0.10488144 4:0.49414063 #
0.26210170565176383 1:0.65333784 2:0.51613688 3:0.40763488 4:2.1738281 #
-0.50499050857447436 1:0.26093262 2:0.27914163 3:0.28492901 4:1.1289063 #
0.50499050857447436 1:0.074186236 2:0.82171977 3:0.10089035 4:0.43164063 #
-0.50499050857447436 1:0.076348171 2:0.71769077 3:0.088606693 4:0.4765625 #
0.50002743468517163 1:0.1332173 2:0.34625298 3:0.25090018 4:1.1699219 #
-0.50499050857447436 1:0.10135189 2:0.41912457 3:0.17591186 4:1.1347656 #
0.50499050857447436 1:0.029861953 2:0.54946715 3:0.09667369 4:0.53515625 #
-0.50499050857447436 1:0.058922499 2:0.53917402 3:0.068119213 4:0.4140625 #
0.13072401037587167 1:0.28929859 2:0.58485734 3:0.20503944 4:1.0585938 #
-0.50499050857447436 1:0.63487148 2:0.15217301 3:0.1972135 4:0.87109375 #
0.50499050857447436 1:0.095762059 2:0.48821154 3:0.059402473 4:0.31835938 #
-0.50499050857447436 1:0.041815497 2:0.41861022 3:0.049493562 4:0.25195313 #
0.50499050857447436 1:0.74489135 2:0.2634497 3:0.21404813 4:0.86328125 #
-0.50499050857447436 1:0.036919415 2:-0.38096213 3:0.067419201 4:0.27539063 #
0.50499050857447436 1:0.084500417 2:0.43791708 3:0.06154462 4:0.28125 #
-0.50499050857447436 1:0.080296457 2:0.42833945 3:0.069475472 4:0.33984375 #
0.50499050857447436 1:0.10617062 2:-0.38284484 3:0.032404162 4:0.2421875 #
-0.50499050857447436 1:0.02509789 2:-0.82785469 3:0.049537022 4:0.1875 #
0.50499050857447436 1:0.048551593 2:0.3459563 3:0.13375258 4:0.40820313 #
-0.50499050857447436 1:0.049366105 2:0.22584061 3:0.14160952 4:0.4921875 #
0.50499050857447436 1:0.091513537 2:-0.80296707 3:0.052955471 4:0.26953125 #
-0.50499050857447436 1:0.33950573 2:0.47962025 3:0.1578268 4:0.89257813 #
0.10472077435391561 1:0.56389976 2:0.091088116 3:0.5007745 4:3.3945313 #
-0.50499050857447436 1:0.069426991 2:0.19163993 3:0.10732754 4:0.55273438 #
0.50499050857447436 1:0.3491393 2:0.5861007 3:0.15626827 4:0.80859375 #
-0.50499050857447436 1:0.24992833 2:0.81177723 3:0.2062892 4:0.8515625 #
0.11757747829430451 1:0.96143425 2:0.61721718 3:0.51454788 4:3.3398438 #
-0.50499050857447436 1:0.3076475 2:0.13591367 3:0.11699031 4:0.68945313 #
0.50499050857447436 1:0.080955178 2:0.81440765 3:0.12248553 4:0.6953125 #
-0.50499050857447436 1:0.091455147 2:0.84819335 3:0.14320412 4:0.55664063 #
0.077252582505888623 1:0.27528399 2:0.19291408 3:0.16130856 4:0.73242188 #
-0.50499050857447436 1:0.10246566 2:0.27050319 3:0.12564585 4:0.69921875 #
0.50499050857447436 1:0.10308785 2:0.7887128 3:0.13021158 4:0.50585938 #
-0.50499050857447436 1:0.10744194 2:0.79212081 3:0.082581937 4:0.46289063 #
0.045004828068123642 1:0.45015556 2:-0.10622902 3:0.44376898 4:1.9492188 #
-0.50499050857447436 1:0.071226336 2:-0.1460555 3:0.069899358 4:0.26953125 #
0.50499050857447436 1:0.062168099 2:0.73111778 3:0.081280127 4:0.43554688 #
-0.50499050857447436 1:0.11065277 2:0.56013483 3:0.13469549 4:0.55664063 #
0.012944645082947067 1:0.92033297 2:0.41766709 3:0.36901417 4:1.6914063 #
-0.50499050857447436 1:0.044967551 2:0.077643774 3:0.05994435 4:0.27539063 #
0.50499050857447436 1:0.061203983 2:0.44206321 3:0.116681 4:0.58203125 #
-0.50499050857447436 1:0.059752792 2:0.59080005 3:0.089286514 4:0.66796875 #
0.50499050857447436 1:0.14273055 2:-0.023080099 3:0.053464182 4:0.24023438 #
-0.41137970106724209 1:0.0050309971 2:-0.51949805 3:0.018229881 4:0.060546875 #
0.50499050857447436 1:0.09582144 2:0.75751883 3:0.15053056 4:0.70507813 #
-0.50499050857447436 1:0.11344733 2:0.86090147 3:0.14085056 4:0.73242188 #
0.043159358637545595 1:0.48537695 2:-0.34187084 3:0.30750605 4:1.9277344 #
-0.50499050857447436 1:0.32909682 2:-0.017441701 3:0.11757727 4:0.640625 #
0.50499050857447436 1:0.039757442 2:0.95548296 3:0.13622849 4:0.96875 #
-0.50499050857447436 1:0.34345636 2:-0.22943519 3:0.17959741 4:1.0332031 #
0.041448370776807464 1:0.55221605 2:0.45851928 3:0.52206153 4:3.0625 #
-0.50499050857447436 1:0.78461486 2:0.098534636 3:0.16503255 4:0.7578125 #
0.21316985265813748 1:0.25586444 2:-0.23561035 3:0.23290025 4:1.1289063 #
-0.50499050857447436 1:0.11207982 2:0.92701244 3:0.12037871 4:0.83203125 #
0.42440129237631313 1:0.81995577 2:0.10035685 3:0.12558158 4:0.48828125 #
-0.50499050857447436 1:1.0802159 2:0.24212155 3:0.60028714 4:2.2792969 #
0.49360427419263486 1:0.24711648 2:0.52094704 3:0.15439744 4:0.83007813 #
-0.50499050857447436 1:0.34407622 2:0.51362181 3:0.14032622 4:0.84570313 #
0.3447089466107055 1:0.99172324 2:0.057835221 3:0.36299071 4:2.2851563 #
-0.50499050857447436 1:0.089263611 2:0.46116695 3:0.095414974 4:0.47070313 #
0.16538685533192463 1:0.66660017 2:0.26020455 3:0.22260526 4:0.9453125 #
-0.50499050857447436 1:0.53603095 2:0.22806969 3:0.12583491 4:0.66015625 #
0.50499050857447436 1:0.10125422 2:0.55070353 3:0.096405454 4:0.46875 #
-0.50499050857447436 1:0.06865973 2:0.63114727 3:0.092644006 4:0.40429688 #
0.47666242061991621 1:0.20336249 2:0.41578445 3:0.095276289 4:0.48828125 #
-0.50499050857447436 1:1.0889446 2:0.15688752 3:0.2408026 4:1.3378906 #
0.50499050857447436 1:0.061321188 2:0.68024373 3:0.081691779 4:0.53125 #
-0.50499050857447436 1:0.094469227 2:0.51036429 3:0.075427368 4:0.4296875 #
0.48025145715398015 1:1.0936235 2:0.14445363 3:0.28490043 4:1.3164063 #
-0.50499050857447436 1:1.3402256 2:0.013138227 3:0.45204583 4:2.0585938 #
0.50499050857447436 1:0.12960787 2:0.62827295 3:0.077843793 4:0.41015625 #
-0.50499050857447436 1:0.10206585 2:0.68964672 3:0.078971714 4:0.3828125 #
0.42232529720309381 1:1.2988435 2:0.24199264 3:0.44169444 4:1.9179688 #
-0.50499050857447436 1:1.1915896 2:-0.022798263 3:0.32811531 4:1.5996094 #
0.50499050857447436 1:0.16968822 2:0.35942492 3:0.084506251 4:0.37890625 #
-0.50499050857447436 1:0.36663374 2:0.81208533 3:0.42128071 4:2.5761719 #
0.25338362698795663 1:1.2004377 2:0.19353181 3:0.29896897 4:1.3613281 #
-0.50499050857447436 1:0.11519133 2:0.58929574 3:0.18790515 4:0.8671875 #
0.4376139793119343 1:0.47989804 2:0.77373087 3:0.38681334 4:2.71875 #
-0.50499050857447436 1:0.055655271 2:0.36275518 3:0.065273449 4:0.25585938 #
0.12578922614132976 1:0.17004457 2:0.54105324 3:0.15266906 4:0.94140625 #
-0.50499050857447436 1:0.0080487356 2:-0.86240512 3:0.017455557 4:0.083984375 #
0.50499050857447436 1:0.07378494 2:0.26363972 3:0.094094075 4:0.4453125 #
-0.50499050857447436 1:0.089039817 2:0.48295188 3:0.090396792 4:0.44335938 #
0.50499050857447436 1:0.057158913 2:-0.69381207 3:0.10130556 4:0.296875 #
-0.50499050857447436 1:0.0060474738 2:-0.25363263 3:0.0067106625 4:0.041015625 #
0.50499050857447436 1:0.074571043 2:0.52721024 3:0.18174408 4:0.71679688 #
-0.50499050857447436 1:0.01243904 2:0.15132605 3:0.011456975 4:0.056640625 #
0.15350950944503017 1:0.36385828 2:0.37851164 3:0.35320044 4:2.3007813 #
-0.50499050857447436 1:0.14843313 2:0.91567075 3:0.1415633 4:0.60546875 #
0.2164961563552226 1:0.93033838 2:0.15362926 3:0.31342354 4:1.7324219 #
-0.50499050857447436 1:0.0035383657 2:-0.59068036 3:0.0031582362 4:0.01171875 #
0.50499050857447436 1:0.24125768 2:0.40786079 3:0.070695132 4:0.34765625 #
-0.50499050857447436 1:0.028501445 2:0.27685252 3:0.049447693 4:0.23828125 #
0.1801691327510451 1:1.6994228 2:-0.22772071 3:0.56382269 4:2.3710938 #
-0.50499050857447436 1:0.085513577 2:0.70052284 3:0.06902986 4:0.36523438 #
0.50499050857447436 1:0.078921549 2:-0.3123354 3:0.099569485 4:0.34960938 #
-0.50499050857447436 1:0.012182963 2:-0.31565616 3:0.016724393 4:0.0703125 #
0.12264252059094662 1:1.261238 2:0.32658976 3:0.92810202 4:3.1445313 #
-0.20469203686582341 1:0.014192217 2:0.47446144 3:0.012063307 4:0.060546875 #
0.15519259211095196 1:0.46295092 2:-0.3103494 3:0.52659637 4:4 #
-0.50499050857447436 1:0.064665221 2:0.98035097 3:0.094561324 4:0.46875 #
0.50499050857447436 1:0.16067587 2:0.29564974 3:0.076983601 4:0.37890625 #
-0.50499050857447436 1:0.050707903 2:0.58169371 3:0.064718135 4:0.32617188 #
0.16985259161527441 1:0.42846173 2:-0.93394476 3:0.36527643 4:2.7753906 #
-0.50499050857447436 1:0.018988626 2:0.96655566 3:0.019483866 4:0.080078125 #
0.50499050857447436 1:0.48534954 2:0.041271806 3:0.17874175 4:0.7734375 #
-0.50499050857447436 1:0.0061755115 2:0.2321385 3:0.01576142 4:0.056640625 #
0.14499794113637776 1:1.8149719 2:0.040550221 3:0.70307404 4:4 #
-0.41939344251587762 1:0.0035932274 2:-0.55733103 3:0.0067506265 4:0.033203125 #
0.11057238997472613 1:0.64480829 2:0.63965553 3:0.61339736 4:4 #
0.08610219934334265 1:0.42715186 2:-0.76864702 3:0.17824823 4:0.95507813 #
-0.16511132130590661 1:0.10110448 2:0.61649668 3:0.062741928 4:0.25195313 #
0.50499050857447436 1:0.16754478 2:-0.080131948 3:0.056526858 4:0.28125 #
-0.36265442419414795 1:0.0067010131 2:-0.29403979 3:0.0075188647 4:0.033203125 #
0.052456810783668588 1:0.41338456 2:-0.58412755 3:0.32613769 4:1.8789063 #
-0.50499050857447436 1:0.11939687 2:0.97739416 3:0.065495603 4:0.31054688 #
0.14292557163507816 1:1.2334732 2:-0.33569616 3:0.99606621 4:4 #
0.13402300263291342 1:1.7094822 2:0.014472674 3:0.56410438 4:3.21875 #
0.22815144111898886 1:1.5057845 2:0.11812632 3:0.34734398 4:1.6660156 #
-0.50499050857447436 1:0.020495931 2:0.97682136 3:0.031770106 4:0.10546875 #
-0.50499050857447436 1:0.011218843 2:0.7166332 3:0.019121043 4:0.07421875 #
-0.28824199165449033 1:0.096033134 2:0.91618967 3:0.096099116 4:0.51367188 #
0.11341027697673189 1:0.75905252 2:0.1884957 3:0.6211248 4:2.5839844 #
0.1331705921363617 1:0.18586464 2:-0.44464928 3:0.3823989 4:2.3515625 #
0.19644827048672153 1:0.48023447 2:0.48632494 3:0.16989511 4:0.69726563 #
0.15791756293134207 1:1.6302634 2:0.4486447 3:0.94528037 4:3.9121094 #
-0.22230116937475841 1:0.081765778 2:0.82654649 3:0.089515671 4:0.45507813 #
0.044015356076061635 1:0.076126471 2:-0.022325732 3:0.11816209 4:0.77148438 #
0.044341371657486063 1:0.53692406 2:0.3492589 3:0.70799166 4:3.4472656 #
0.063714503671866887 1:0.44886416 2:0.099049658 3:0.4366805 4:1.4707031 #
0.126860239741686 1:1.2040305 2:-0.12844555 3:0.67456216 4:3.203125 #
0.13972852377120565 1:1.8978121 2:0.053264514 3:0.50017917 4:2.7871094 #
0.068351933992966407 1:0.016444746 2:-0.7455796 3:0.1506723 4:1.0136719 #
-0.083258187093894959 1:0.01994447 2:0.85816801 3:0.015580804 4:0.0625 #
0.36395989031078468 1:0.13380504 2:0.73946226 3:0.17331176 4:1.0644531 #
0.12183071458322781 1:1.4163309 2:-0.13639487 3:0.556045 4:2.7851563 #
0.36479512179902301 1:0.066102393 2:0.43317065 3:0.18454753 4:0.59179688 #
0.13512820340123011 1:0.44911614 2:0.11994158 3:0.70127481 4:4 #
0.12878580677891735 1:1.3792377 2:0.6677615 3:0.75427222 4:3.3222656 #
0.097794155596067536 1:0.2674357 2:0.046877071 3:0.54850149 4:2.5976563 #
0.28303181658077298 1:0.090263203 2:0.086458728 3:0.070635267 4:0.40429688 #
0.13935667750992903 1:1.0781105 2:0.11336856 3:0.20370038 4:0.98242188 #
0.19417041200898974 1:0.0558125 2:0.34651548 3:0.14555453 4:1.0703125 #
0.090365867996052729 1:0.83385664 2:0.60083956 3:0.63344383 4:2.9199219 #
0.04787798334028958 1:0.2512697 2:0.35004595 3:0.20622519 4:1.2265625 #
0.11897140717968423 1:1.5845441 2:-0.18404919 3:1.0322001 4:4 #
0.081432790407083386 1:0.36754707 2:0.46232021 3:0.25937042 4:1.1113281 #
0.089206941292359218 1:0.71696186 2:-0.24119072 3:0.52738941 4:2.5566406 #
0.034252094104603545 1:0.096181937 2:-0.24653783 3:0.18418734 4:1.1796875 #
0.042370887021746004 1:0.15748471 2:-0.60775471 3:0.36407378 4:1.3671875 #
0.30299612710659024 1:0.077104047 2:0.32499182 3:0.11742248 4:0.53125 #
0.038819428845439242 1:0.16971292 2:0.20003635 3:0.3027828 4:2.2050781 #
0.50499050857447436 1:0.28667921 2:-0.024128133 3:0.14460716 4:0.70117188 #
0.072549378357776834 1:0.19896646 2:0.75734788 3:0.24470147 4:1.5527344 #
0.13141207918980721 1:0.39530224 2:-0.41094998 3:0.18109284 4:1.0214844 #
0.078033261352117161 1:0.10500949 2:-0.23353401 3:0.2950311 4:1.8222656 #
0.11589204270894868 1:0.22689183 2:-0.79186779 3:0.25766563 4:1.7109375 #
0.11686376577730559 1:0.038891725 2:-0.50638241 3:0.11552023 4:0.38867188 #
0.10403826843062115 1:0.84419996 2:0.51516312 3:0.77014124 4:4 #
-0.020706312964434044 1:0.040185362 2:0.40382302 3:0.038931444 4:0.18945313 #
0.075758114548202041 1:0.73450506 2:0.79659563 3:0.39729339 4:2.0761719 #
0.072734233846019111 1:0.56555247 2:-0.10709272 3:0.18388747 4:1.0097656 #
0.093654796309838334 1:0.95348501 2:0.088665806 3:0.44893679 4:2.8125 #
-0.2312035754708999 1:0.017951893 2:0.94855833 3:0.023457523 4:0.083984375 #
0.10939965909019497 1:0.39201298 2:0.24159668 3:0.20000777 4:0.98046875 #
0.13983701705353879 1:0.50161225 2:0.58425558 3:0.46791804 4:2.5566406 #
0.04381207676540784 1:0.50169075 2:0.52997524 3:0.20926656 4:1.4707031 #
0.37517776469971459 1:0.0072593731 2:-0.036272984 3:0.092241183 4:0.43359375 #
0.010349490966500176 1:0.32324761 2:0.32352385 3:0.31532696 4:1.3613281 #
0.10303723382196191 1:0.29743782 2:0.40904692 3:0.34012619 4:2.0429688 #
-0.04899020883318525 1:0.029220371 2:0.97609293 3:0.024103899 4:0.109375 #
0.077702921323637986 1:0.52687043 2:0.071367972 3:0.1504925 4:0.9375 #
0.053253428351090412 1:0.48448381 2:0.22264236 3:0.52911794 4:3.0664063 #
0.071921636450135773 1:0.76311636 2:0.094504356 3:0.28403863 4:1.4179688 #
0.095784592896063739 1:0.6604476 2:0.32490715 3:0.82072818 4:3.5625 #
0.065453909965859397 1:0.44797719 2:0.76985967 3:0.32209423 4:1.5957031 #
0.25497765345181722 1:0.46433309 2:0.045619912 3:0.18781039 4:0.81640625 #
0.019228774075211556 1:0.46761921 2:-0.48006058 3:0.16883129 4:0.77539063 #
0.12491253204526216 1:0.3825033 2:0.12807249 3:0.15603688 4:0.5859375 #
0.042631696754565129 1:1.1188967 2:0.41426954 3:0.71449471 4:3.3789063 #
0.052334155010960427 1:0.1422386 2:-0.1566862 3:0.29334691 4:2.0722656 #
0.039601300540393992 1:0.17862119 2:-0.54674757 3:0.06848073 4:0.32421875 #
0.048963936708742523 1:0.3605575 2:-0.21724482 3:0.16506983 4:0.73242188 #
0.051575427321876879 1:0.081063226 2:-0.81168824 3:0.20553488 4:1.125 #
0.049754687726938897 1:0.5307104 2:-0.31534222 3:0.2600697 4:1.4550781 #
0.054373304521949606 1:0.50374079 2:-0.38832921 3:0.19725077 4:0.88867188 #
0.0053736892601873908 1:0.63100874 2:0.29837623 3:0.24172097 4:1.4726563 #
0.26056143172630791 1:0.27872956 2:0.39362705 3:0.1692197 4:0.96289063 #
0.027151642491695566 1:0.5099479 2:0.21680878 3:0.31355679 4:2.0410156 #
-0.062440525430275347 1:0.071895637 2:0.73583704 3:0.081212766 4:0.38867188 #
0.040618892086949382 1:0.076801203 2:-0.54817879 3:0.19039558 4:1.3613281 #
-0.21929470390531333 1:0.078630269 2:0.5518235 3:0.046860155 4:0.2578125 #
0.028448667506629447 1:0.50059414 2:-0.62430513 3:0.23724073 4:1.296875 #
0.034894482841885399 1:0.32633954 2:0.3604905 3:0.41512793 4:1.765625 #
0.33329270709526493 1:0.070645824 2:0.084385067 3:0.1477128 4:0.7578125 #
0.0063003782159609155 1:0.27069181 2:-0.11947264 3:0.1824055 4:1.1386719 #
0.038413912345747779 1:0.92711496 2:-0.0982785 3:0.49043 4:2.3125 #
0.063675494611283592 1:0.30739534 2:0.17860882 3:0.24740067 4:1.3046875 #
0.028802309184078553 1:0.60379171 2:-0.073003203 3:0.36022311 4:1.9628906 #
0.019440930148874939 1:1.3916819 2:0.01852267 3:0.60425878 4:3.2246094 #
0.02514691780812256 1:0.2053853 2:-0.20081069 3:0.3866207 4:1.4746094 #
0.018424243198171195 1:0.28353721 2:-0.22886379 3:0.17090651 4:0.69335938 #
0.046387072045336528 1:0.03022011 2:-0.37902567 3:0.16676894 4:0.86523438 #
0.21513827963856277 1:0.20403002 2:-0.26483092 3:0.13541256 4:0.75585938 #
0.08257535029103899 1:0.3866812 2:-0.16737831 3:0.25483027 4:1.1640625 #
0.0086486237007784208 1:0.48696381 2:-0.2639572 3:0.37527519 4:1.7421875 #
0.027715045914521723 1:0.22597021 2:-0.29546532 3:0.18416177 4:0.890625 #
0.0050362166161615485 1:0.81183428 2:0.24467123 3:0.38515845 4:2.5078125 #
0.059572381577797623 1:0.30551061 2:0.26252845 3:0.18682504 4:0.83007813 #
0.02623127088059396 1:0.43580702 2:0.5138436 3:0.30154699 4:1.1523438 #
0.010220235506146019 1:0.59186196 2:0.47314036 3:0.43228748 4:2.3242188 #
0.025078864184258743 1:0.20273332 2:-0.038740236 3:0.17330526 4:0.72265625 #
